{
	"sizes": [
		10,
		15,
		10,
		10
	],
	"layers": [
		{
			"0": {},
			"1": {},
			"2": {},
			"3": {},
			"4": {},
			"5": {},
			"6": {},
			"7": {},
			"8": {},
			"9": {}
		},
		{
			"0": {
				"bias": -0.5350942015647888,
				"weights": {
					"0": -0.4108338952064514,
					"1": 1.8007763624191284,
					"2": 2.178255081176758,
					"3": 0.6445592045783997,
					"4": -1.1000412702560425,
					"5": 1.148604154586792,
					"6": -0.5017874836921692,
					"7": 0.17012923955917358,
					"8": -1.6446081399917603,
					"9": -1.3787745237350464
				}
			},
			"1": {
				"bias": -0.6796650886535645,
				"weights": {
					"0": 0.36266326904296875,
					"1": -0.8429880142211914,
					"2": -2.033176898956299,
					"3": -0.7401575446128845,
					"4": -0.48579785227775574,
					"5": -0.2714890241622925,
					"6": -0.3393979072570801,
					"7": -0.5591598749160767,
					"8": 1.947920799255371,
					"9": 2.3238024711608887
				}
			},
			"2": {
				"bias": -0.980473518371582,
				"weights": {
					"0": -0.568421483039856,
					"1": -0.5533697009086609,
					"2": 2.2459096908569336,
					"3": 0.9109309315681458,
					"4": -0.2806568443775177,
					"5": -0.07814577221870422,
					"6": -0.7758031487464905,
					"7": 1.1885802745819092,
					"8": -1.5761886835098267,
					"9": -2.1184396743774414
				}
			},
			"3": {
				"bias": -0.266514390707016,
				"weights": {
					"0": -1.1381598711013794,
					"1": 2.2758285999298096,
					"2": 2.2009623050689697,
					"3": 1.9826745986938477,
					"4": -1.888859748840332,
					"5": 1.1548607349395752,
					"6": -0.5135097503662109,
					"7": -0.7548431158065796,
					"8": -1.8358150720596313,
					"9": -1.7572119235992432
				}
			},
			"4": {
				"bias": -0.09518750011920929,
				"weights": {
					"0": -0.38143685460090637,
					"1": 1.4598865509033203,
					"2": -1.430138111114502,
					"3": 2.1819026470184326,
					"4": 0.5335963368415833,
					"5": 2.000936269760132,
					"6": -1.480760097503662,
					"7": -2.04193115234375,
					"8": -2.142057418823242,
					"9": 0.4216243326663971
				}
			},
			"5": {
				"bias": -0.22848807275295258,
				"weights": {
					"0": -0.27290409803390503,
					"1": 0.06472684442996979,
					"2": 1.1761178970336914,
					"3": -1.8606635332107544,
					"4": -1.5636507272720337,
					"5": 0.38990989327430725,
					"6": 1.0235426425933838,
					"7": 1.3418458700180054,
					"8": 0.39708995819091797,
					"9": -1.4567533731460571
				}
			},
			"6": {
				"bias": 0.312114953994751,
				"weights": {
					"0": 0.763036847114563,
					"1": -1.4128974676132202,
					"2": -1.2633297443389893,
					"3": -2.889770984649658,
					"4": -1.6731579303741455,
					"5": 0.789188027381897,
					"6": 1.5802439451217651,
					"7": 1.3423231840133667,
					"8": 1.9460095167160034,
					"9": 0.9765603542327881
				}
			},
			"7": {
				"bias": -0.8091384768486023,
				"weights": {
					"0": -0.8135756254196167,
					"1": -0.782502293586731,
					"2": 0.23755760490894318,
					"3": 1.7815548181533813,
					"4": 1.9168472290039062,
					"5": 1.52302885055542,
					"6": -1.1656732559204102,
					"7": -0.24465610086917877,
					"8": -1.7177796363830566,
					"9": -1.5811598300933838
				}
			},
			"8": {
				"bias": -0.901480495929718,
				"weights": {
					"0": -0.7688054442405701,
					"1": -0.19863489270210266,
					"2": 1.6357495784759521,
					"3": -1.0902026891708374,
					"4": -0.6840972900390625,
					"5": 0.6874654293060303,
					"6": 0.20091679692268372,
					"7": 0.8723908066749573,
					"8": -0.19199424982070923,
					"9": -1.4752615690231323
				}
			},
			"9": {
				"bias": -0.748540997505188,
				"weights": {
					"0": -0.13069133460521698,
					"1": -0.933802604675293,
					"2": 0.5141072869300842,
					"3": -0.8685607314109802,
					"4": 0.5523766279220581,
					"5": 1.1846039295196533,
					"6": -0.03227734565734863,
					"7": 0.960929811000824,
					"8": -0.6718682050704956,
					"9": -1.1525955200195312
				}
			},
			"10": {
				"bias": -0.8327902555465698,
				"weights": {
					"0": -1.2952322959899902,
					"1": -2.41745924949646,
					"2": 0.36172258853912354,
					"3": -2.68438720703125,
					"4": -1.1411490440368652,
					"5": -0.7412375807762146,
					"6": 2.1610116958618164,
					"7": 2.6155238151550293,
					"8": 3.1498489379882812,
					"9": -0.7295519113540649
				}
			},
			"11": {
				"bias": -0.6606851816177368,
				"weights": {
					"0": -1.1029266119003296,
					"1": -1.6838234663009644,
					"2": 2.507307767868042,
					"3": 2.0022037029266357,
					"4": 2.661440849304199,
					"5": -0.39272382855415344,
					"6": -1.7730858325958252,
					"7": 1.7600162029266357,
					"8": -2.1279001235961914,
					"9": -2.281064987182617
				}
			},
			"12": {
				"bias": -0.32213494181632996,
				"weights": {
					"0": 1.010899543762207,
					"1": -0.3634406626224518,
					"2": -2.0404598712921143,
					"3": -0.7963912487030029,
					"4": -0.765453040599823,
					"5": 0.11470474302768707,
					"6": -0.43662402033805847,
					"7": -0.9216743111610413,
					"8": 1.3187493085861206,
					"9": 2.381361961364746
				}
			},
			"13": {
				"bias": -0.5802758932113647,
				"weights": {
					"0": -0.5151842832565308,
					"1": -1.3965739011764526,
					"2": 0.34606295824050903,
					"3": 0.7801445722579956,
					"4": 1.7949141263961792,
					"5": 1.2955063581466675,
					"6": -0.7475304007530212,
					"7": 0.8749018311500549,
					"8": -1.4483848810195923,
					"9": -1.7483271360397339
				}
			},
			"14": {
				"bias": -0.5337821245193481,
				"weights": {
					"0": -0.26473620533943176,
					"1": -1.9662764072418213,
					"2": 0.5472843050956726,
					"3": -1.3513565063476562,
					"4": 1.7308608293533325,
					"5": 0.07991308718919754,
					"6": 0.019194016233086586,
					"7": 1.3681808710098267,
					"8": 0.16987290978431702,
					"9": -1.0808939933776855
				}
			}
		},
		{
			"0": {
				"bias": -0.7008647322654724,
				"weights": {
					"0": -0.30643728375434875,
					"1": -0.5807821154594421,
					"2": -0.2836611568927765,
					"3": -0.12827646732330322,
					"4": -0.4843466281890869,
					"5": -0.13192130625247955,
					"6": -0.5379331111907959,
					"7": -0.12871117889881134,
					"8": -0.3015260398387909,
					"9": -0.4332256317138672,
					"10": -0.6708806753158569,
					"11": -0.2202339470386505,
					"12": -0.6980434060096741,
					"13": -0.5452390313148499,
					"14": -0.6723628640174866
				}
			},
			"1": {
				"bias": -0.6354893445968628,
				"weights": {
					"0": 0.18092575669288635,
					"1": -0.1576213538646698,
					"2": -0.15216931700706482,
					"3": 1.1925086975097656,
					"4": 0.6032856702804565,
					"5": -0.5889504551887512,
					"6": -1.541491150856018,
					"7": -0.5711379647254944,
					"8": -0.7927558422088623,
					"9": -1.1913001537322998,
					"10": -1.9285844564437866,
					"11": -1.1207716464996338,
					"12": -0.013780665583908558,
					"13": -1.07144296169281,
					"14": -1.906004548072815
				}
			},
			"2": {
				"bias": 0.6535656452178955,
				"weights": {
					"0": -0.03785477206110954,
					"1": 1.4936227798461914,
					"2": -1.209978461265564,
					"3": -0.05750840902328491,
					"4": 1.230934739112854,
					"5": -1.0154143571853638,
					"6": -0.3244249224662781,
					"7": -1.1757820844650269,
					"8": -1.1315096616744995,
					"9": -1.1894609928131104,
					"10": -2.495396375656128,
					"11": -1.9605385065078735,
					"12": 1.7779204845428467,
					"13": -1.5864275693893433,
					"14": -1.6076228618621826
				}
			},
			"3": {
				"bias": -0.4117181897163391,
				"weights": {
					"0": -1.522430181503296,
					"1": 0.144373819231987,
					"2": 0.23938973248004913,
					"3": -1.02250075340271,
					"4": 1.1795859336853027,
					"5": -2.679431438446045,
					"6": -2.9306387901306152,
					"7": 2.0333125591278076,
					"8": -1.5561989545822144,
					"9": -0.47869813442230225,
					"10": -2.146958351135254,
					"11": 2.875047206878662,
					"12": -0.22524519264698029,
					"13": 1.5083681344985962,
					"14": 0.33807024359703064
				}
			},
			"4": {
				"bias": -0.29423943161964417,
				"weights": {
					"0": -0.5315638780593872,
					"1": -0.6038196086883545,
					"2": -0.627392053604126,
					"3": -1.2555372714996338,
					"4": -0.6110475063323975,
					"5": -0.6755229830741882,
					"6": -0.25044459104537964,
					"7": -0.11544737219810486,
					"8": -0.5145454406738281,
					"9": -0.38651975989341736,
					"10": -0.7097105383872986,
					"11": 0.10089679807424545,
					"12": -0.42065832018852234,
					"13": -0.321856290102005,
					"14": 0.33346888422966003
				}
			},
			"5": {
				"bias": 0.1762090027332306,
				"weights": {
					"0": -1.2304002046585083,
					"1": 1.6084027290344238,
					"2": -1.2456594705581665,
					"3": -1.5457972288131714,
					"4": 0.6109505891799927,
					"5": -1.6162782907485962,
					"6": -0.2498437613248825,
					"7": -0.3886057138442993,
					"8": -1.2262293100357056,
					"9": -0.7756984233856201,
					"10": -1.2598226070404053,
					"11": -0.5817486047744751,
					"12": 1.6259757280349731,
					"13": -0.7500270009040833,
					"14": -0.5272031426429749
				}
			},
			"6": {
				"bias": -0.91189044713974,
				"weights": {
					"0": -2.1297333240509033,
					"1": 1.170587420463562,
					"2": -1.9243555068969727,
					"3": -2.0789785385131836,
					"4": -2.722095012664795,
					"5": 0.12838907539844513,
					"6": 1.1820429563522339,
					"7": -2.1669788360595703,
					"8": -0.2866131365299225,
					"9": -1.1411662101745605,
					"10": 3.9043397903442383,
					"11": -2.827822685241699,
					"12": 0.29040929675102234,
					"13": -1.8955800533294678,
					"14": -0.09746098518371582
				}
			},
			"7": {
				"bias": 1.6372679471969604,
				"weights": {
					"0": 0.09156890958547592,
					"1": 1.6661320924758911,
					"2": -1.5534969568252563,
					"3": 0.888080358505249,
					"4": 1.8949322700500488,
					"5": 0.2381664365530014,
					"6": 1.9401524066925049,
					"7": -0.7919857501983643,
					"8": -0.41672706604003906,
					"9": -0.4512854218482971,
					"10": -0.2264987975358963,
					"11": -3.920696973800659,
					"12": 2.066697597503662,
					"13": -1.2650818824768066,
					"14": -1.4768861532211304
				}
			},
			"8": {
				"bias": -1.2779629230499268,
				"weights": {
					"0": 2.1416444778442383,
					"1": -1.9982377290725708,
					"2": 1.804725170135498,
					"3": 3.5120294094085693,
					"4": 0.1137593612074852,
					"5": -0.06439271569252014,
					"6": -2.9090890884399414,
					"7": -0.01141524501144886,
					"8": 0.5394790768623352,
					"9": -0.7977362871170044,
					"10": -1.9696518182754517,
					"11": 1.4099763631820679,
					"12": -1.8378548622131348,
					"13": -0.6618292927742004,
					"14": -1.3940590620040894
				}
			},
			"9": {
				"bias": 0.5340042114257812,
				"weights": {
					"0": -1.5772229433059692,
					"1": 1.3808883428573608,
					"2": -0.44479167461395264,
					"3": -2.364809513092041,
					"4": -4.010185718536377,
					"5": 1.1749669313430786,
					"6": 2.8674139976501465,
					"7": -2.8412435054779053,
					"8": -0.06427420675754547,
					"9": -0.2473473697900772,
					"10": 4.19697380065918,
					"11": -1.660593032836914,
					"12": 1.0279178619384766,
					"13": -1.5087512731552124,
					"14": 0.8197327852249146
				}
			}
		},
		{
			"0": {
				"bias": -2.3234095573425293,
				"weights": {
					"0": -1.268602728843689,
					"1": -1.4330636262893677,
					"2": -2.2131130695343018,
					"3": -1.976190447807312,
					"4": -1.3925113677978516,
					"5": -1.703108787536621,
					"6": 3.9854543209075928,
					"7": -2.8961310386657715,
					"8": -2.131711006164551,
					"9": 2.454279899597168
				}
			},
			"1": {
				"bias": 0.8964212536811829,
				"weights": {
					"0": -0.8385787606239319,
					"1": -2.0743582248687744,
					"2": -2.3500382900238037,
					"3": -0.12527838349342346,
					"4": -0.45239463448524475,
					"5": -0.43627914786338806,
					"6": -2.449098825454712,
					"7": -1.8963568210601807,
					"8": -0.24317112565040588,
					"9": -4.543124675750732
				}
			},
			"2": {
				"bias": -2.410963296890259,
				"weights": {
					"0": -0.043117351830005646,
					"1": 0.8392487168312073,
					"2": 1.105911374092102,
					"3": 2.710768699645996,
					"4": -0.05095647647976875,
					"5": 0.3511630594730377,
					"6": -2.68613338470459,
					"7": 2.370356321334839,
					"8": -0.7017727494239807,
					"9": -5.3102216720581055
				}
			},
			"3": {
				"bias": 0.5885795950889587,
				"weights": {
					"0": -0.545792281627655,
					"1": -1.0138485431671143,
					"2": -1.0216314792633057,
					"3": -2.166788101196289,
					"4": 0.2900143265724182,
					"5": -0.15906284749507904,
					"6": -1.891770839691162,
					"7": -0.3733036518096924,
					"8": -0.770479679107666,
					"9": -4.793151378631592
				}
			},
			"4": {
				"bias": -1.5255464315414429,
				"weights": {
					"0": -0.218748539686203,
					"1": -0.6121346950531006,
					"2": -1.5439151525497437,
					"3": -1.695957899093628,
					"4": -1.2631398439407349,
					"5": -1.5635168552398682,
					"6": -2.0940890312194824,
					"7": 1.5172529220581055,
					"8": 2.1653213500976562,
					"9": -4.083123683929443
				}
			},
			"5": {
				"bias": -1.9344621896743774,
				"weights": {
					"0": -0.2569294273853302,
					"1": 1.0438731908798218,
					"2": 0.2770666182041168,
					"3": 1.8228150606155396,
					"4": -0.42529258131980896,
					"5": -1.374658226966858,
					"6": -1.9774231910705566,
					"7": -1.5330814123153687,
					"8": 1.8001480102539062,
					"9": -3.3434932231903076
				}
			},
			"6": {
				"bias": -2.825322389602661,
				"weights": {
					"0": -0.5598011016845703,
					"1": -0.29839369654655457,
					"2": 2.672564744949341,
					"3": -1.2615187168121338,
					"4": -0.0428982749581337,
					"5": 2.14902400970459,
					"6": -4.157044410705566,
					"7": -2.408970832824707,
					"8": -2.9192967414855957,
					"9": 3.0014517307281494
				}
			},
			"7": {
				"bias": -6.650113105773926,
				"weights": {
					"0": -0.3081349730491638,
					"1": 0.04175027832388878,
					"2": 2.2939188480377197,
					"3": -0.8191217184066772,
					"4": -0.20422759652137756,
					"5": 2.7472152709960938,
					"6": 3.0321998596191406,
					"7": 3.0906660556793213,
					"8": -2.758765935897827,
					"9": 2.3677453994750977
				}
			},
			"8": {
				"bias": -2.296535015106201,
				"weights": {
					"0": -0.1903153657913208,
					"1": -0.1053854301571846,
					"2": 1.2232226133346558,
					"3": -1.7497742176055908,
					"4": -0.1602664440870285,
					"5": 0.4570225775241852,
					"6": -3.863069772720337,
					"7": -0.8428741693496704,
					"8": -2.48396897315979,
					"9": 2.2836666107177734
				}
			},
			"9": {
				"bias": -2.4854469299316406,
				"weights": {
					"0": -0.5990949869155884,
					"1": -1.8076802492141724,
					"2": -3.4602584838867188,
					"3": -1.9966795444488525,
					"4": -0.661135196685791,
					"5": -2.1924829483032227,
					"6": 1.3000987768173218,
					"7": -0.5220879912376404,
					"8": -3.2396302223205566,
					"9": 3.157147169113159
				}
			}
		}
	],
	"outputLookup": false,
	"inputLookup": false,
	"activation": "sigmoid",
	"trainOpts": {
		"iterations": 2000,
		"errorThresh": 0.005,
		"log": true,
		"logPeriod": 10,
		"learningRate": 0.3,
		"momentum": 0.1,
		"callbackPeriod": 10
	}
}
